%YAML 1.0
---
opencv_ml_svm:
   format: 3
   svmType: C_SVC
   kernel:
      type: RBF
      gamma: 5.0000000000000000e-01
   C: 1.
   term_criteria: { epsilon:1.1920928955078125e-07, iterations:1000 }
   var_count: 210
   class_count: 2
   class_labels: !!opencv-matrix
      rows: 2
      cols: 1
      dt: i
      data: [ 2, 3 ]
   sv_total: 12
   support_vectors:
      - [ 0., 0., 0., 0., 0., 0., 0., 0., 0., 0., 0., 0., 0., 0., 0., 0.,
          0., 0., 0., 0., 2., 1.03607380e+00, 2., 1.16107380e+00, -2.,
          1.18791938e+00, 2., 9.19882536e-01, 2., 9.19882536e-01,
          -1.08420217e-19, 1.13422811e+00, 2., 1.08976507e+00, 2.,
          1.16107380e+00, 2., 1.08976507e+00, -2., 1.18791938e+00,
          3.68934881e+19, 1.27265096e+00, 0., 1.39093959e+00, -2.,
          1.43791938e+00, 2., 1.53607380e+00, -1.08420217e-19,
          1.68959725e+00, 3.68934881e+19, 1.79446304e+00, 0.,
          1.85402679e+00, 0., 1.77684557e+00, 0., 1.87500000e+00,
          -3.68934881e+19, 1.81711400e+00, 2., 1.83389258e+00, 2.,
          1.84563756e+00, 0., 0., 0., 0., 0., 0., 0., 0., 0., 0., 0., 0.,
          0., 0., 0., 0., 0., 0., 0., 0., 0., 0., 0., 0., 0., 0., 0., 0.,
          0., 0., 0., 0., 0., 0., 0., 0., 0., 0., 0., 1.62500000e+00, 0.,
          1.75000000e+00, 0., 1.62500000e+00, 0., 1.62500000e+00, 0.,
          1.87500000e+00, 0., 1.87500000e+00, 0., 1.75000000e+00, 0.,
          1.87500000e+00, 0., 1.81250000e+00, 0., 1.87500000e+00, 0.,
          1.75000000e+00, 0., 0., 0., 1.81250000e+00, 0., 0., 0., 0., 0.,
          0., 0., 0., 0., 0., 0., 0., 0., 0., 0., 0., 0., 0., 0., 0., 0.,
          0., 0., 0., 0., 0., 0., 0., 0., 0., 0., 0., 0., 0., 0., 0., 0.,
          0., 0., 0., 0., 0., 0., 0., 0., 0., 0., 0., 0., 0., 0., 0., 0.,
          0., 0., 1.75000000e+00, 0., 1.75000000e+00, 0., 1.75000000e+00,
          0., 1.75000000e+00, 0., 1.87500000e+00, 1.20518118e+19,
          1.68657339e+00, 4.14718106e+09, 1.43816447e+00, 7.91938020e-36,
          1.06303322e+00, 3.84595545e-26, 8.42669189e-01,
          -2.31394611e-17, -4.16079938e-01, -6.33912831e-27,
          -7.34171689e-01, 1.04083024e+16, 3.96915346e-01, 0.,
          5.75317383e+00, 3.09485010e+27, 3.94906998e+00 ]
      - [ 2., 1.00723135e+00, 1.08420217e-19, 1.58574378e+00,
          -1.08420217e-19, 1.60433877e+00, 1.08420217e-19,
          1.54855371e+00, -1.08420217e-19, 1.57954538e+00, 0.,
          1.60020661e+00, 0., 1.63016522e+00, -1.08420217e-19,
          1.77944207e+00, -3.68934881e+19, 1.83884287e+00, 0.,
          1.87500000e+00, -1.08420217e-19, 1.75464869e+00,
          1.08420217e-19, 1.65909088e+00, -1.08420217e-19,
          1.54235530e+00, 0., 1.32334709e+00, 0., 1.30681813e+00, 2.,
          1.28202474e+00, 1.08420217e-19, 1.19834709e+00, 0.,
          1.33161151e+00, 1.08420217e-19, 1.24793386e+00,
          -1.08420217e-19, 1.21487594e+00, 2., 1.25723135e+00,
          1.08420217e-19, 1.24793386e+00, 2., 1.10640490e+00, -2.,
          1.16528916e+00, -1.08420217e-19, 1.21487594e+00, 0.,
          1.14876032e+00, 0., 9.74173546e-01, 1.08420217e-19,
          1.19834709e+00, -1.08420217e-19, 1.21487594e+00, 0., 0., 0.,
          1.07334709e+00, -2., 1.04028916e+00, 0., 0., 0., 0., 0., 0.,
          0., 0., 0., 0., 0., 0., 0., 0., 0., 0., 0., 0., 0., 0., 0., 0.,
          0., 0., 0., 0., 0., 0., 0., 0., 0., 0., 0., 0., 0., 0., 0., 0.,
          0., 0., 0., 0., 0., 0., 0., 0., 0., 0., 0., 0., 0., 0., 0., 0.,
          0., 0., 0., 0., 0., 0., 0., 0., 0., 0., 0., 0., 0., 0., 0., 0.,
          0., 0., 0., 0., 0., 0., 0., 0., 0., 0., 0., 0., 0., 0., 0., 0.,
          0., 0., 0., 0., 0., 0., 0., 0., 0., 0., 0., 0., 0., 0., 0., 0.,
          0., 0., 0., 0., 0., 0., 0., 0., 0., 0., 0., 0., 0., 0., 0., 0.,
          0., 0., 0., 0., 0., 0., 0., 0., 0., 0., -2.33180504e+01,
          1.53425682e+00, -2.27791783e+38, 3.54774028e-01,
          -3.38175971e-31, 3.97480667e-01, -15663761., 1.08406439e-01,
          1.69585008e-14, 1.14440368e-02, -6.49358029e-04,
          4.15740125e-02, 1.88048737e+02, -1.13768931e-02, 0.,
          5.20947266e+00, -4.23516474e-22, 3.64647436e+00 ]
      - [ 2., 1.68972743e+00, 0., 1.70335424e+00, 0., 1.70964360e+00, 2.,
          1.67819703e+00, -1.08420217e-19, 1.80162466e+00, 0.,
          1.87500000e+00, 1.08420217e-19, 1.83569181e+00, 2.,
          1.63102722e+00, 3.68934881e+19, 1.53223264e+00, -2.,
          1.50078607e+00, 0., 1.40094340e+00, -3.68934881e+19,
          1.44706488e+00, -3.68934881e+19, 1.37578607e+00,
          3.68934881e+19, 1.16771483e+00, -1.08420217e-19,
          1.21802926e+00, 3.68934881e+19, 1.20125782e+00, 3.68934881e+19,
          1.16771483e+00, -2., 1.25078607e+00, -3.68934881e+19,
          1.15094328e+00, 0., 1.27594340e+00, 3.68934881e+19,
          1.20125782e+00, 0., 1.13417184e+00, 0., 1.00917184e+00, 0.,
          1.13417184e+00, -2., 1.25078607e+00, 0., 9.75628912e-01, 2.,
          1.07625782e+00, 0., 0., 0., 1.13417184e+00, -3.68934881e+19,
          1.18448627e+00, 0., 9.42085922e-01, 0., 1.13417184e+00, 0., 0.,
          0., 0., 0., 0., 0., 0., 0., 0., 0., 0., 0., 0., 0., 0., 0., 0.,
          0., 0., 0., 0., 0., 0., 0., 0., 0., 0., 0., 0., 0., 0., 0., 0.,
          0., 0., 0., 0., 0., 0., 0., 0., 0., 0., 0., 0., 0., 0., 0., 0.,
          0., 0., 0., 0., 0., 0., 0., 0., 0., 0., 0., 0., 0., 0., 0., 0.,
          0., 0., 0., 0., 0., 0., 0., 0., 0., 0., 0., 0., 0., 0., 0., 0.,
          0., 0., 0., 0., 0., 0., 0., 0., 0., 0., 0., 0., 0., 0., 0., 0.,
          0., 0., 0., 0., 0., 0., 0., 0., 0., 0., 0., 0., 0., 0., 0., 0.,
          0., 0., 0., 0., 0., 0., 0., 0., 0., 0., 0., 0., 0., 0.,
          1.04581481e+29, 1.53430998e+00, -5.95829578e+33,
          4.33739275e-01, 1.64442331e-23, 4.12885219e-01, 4.16444877e+09,
          1.39453843e-01, 4.21405956e-02, 1.48553699e-02, 6.29932627e-37,
          6.24710396e-02, -2.48364007e+11, 1.75571200e-02, 0.,
          5.20861816e+00, -4.50359963e+15, 3.64533019e+00 ]
      - [ 0., 0., 0., 0., 0., 0., 0., 0., 0., 0., 0., 0., 0., 0., 0., 0.,
          0., 0., 0., 0., 0., 0., 0., 0., 0., 0., 0., 0., 3.68934881e+19,
          1.39765096e+00, 2., 1.62751675e+00, -2., 1.69798648e+00, 0.,
          1.74496639e+00, 0., 1.70134223e+00, 3.68934881e+19,
          1.68120801e+00, 0., 1.72818792e+00, 0., 1.71812081e+00,
          -1.08420217e-19, 1.72147644e+00, 0., 1.71140933e+00,
          3.68934881e+19, 1.72483218e+00, -1.08420217e-19,
          1.78104019e+00, 0., 1.85318792e+00, 1.08420217e-19,
          1.70469797e+00, 0., 1.87500000e+00, -2., 1.73154354e+00, 2.,
          1.86157715e+00, -1.08420217e-19, 1.81459725e+00, 0., 0., 0.,
          0., 0., 0., 0., 0., 0., 0., 0., 0., 0., 0., 0., 0., 0., 0., 0.,
          0., 0., 0., 0., 0., 0., 0., 0., 0., 0., 0., 0., 0., 0., 0., 0.,
          0., 0., 0., 0., 0., 0., 0., 0., 0., 0., 0., 0., 1.81250000e+00,
          0., 1.75000000e+00, 0., 1.75000000e+00, 0., 1.75000000e+00, 0.,
          1.87500000e+00, 0., 1.75000000e+00, 0., 1.75000000e+00, 0., 0.,
          0., 1.75000000e+00, 0., 0., 0., 0., 0., 0., 0., 0., 0., 0., 0.,
          0., 0., 0., 0., 0., 0., 0., 0., 0., 0., 0., 0., 0., 0., 0., 0.,
          0., 0., 0., 0., 0., 0., 0., 0., 0., 0., 0., 0., 0., 0., 0., 0.,
          0., 0., 0., 0., 0., 0., 0., 0., 0., 0., 0., 0., 0., 0., 0., 0.,
          0., 0., 1.87500000e+00, 0., 1.87500000e+00, -2.79009735e-40,
          1.68568552e+00, -3.97256542e+23, 1.43806338e+00,
          2.50915198e+29, 1.04975486e+00, 1.17958660e+36, 8.36495578e-01,
          -1.30032115e+14, -4.09916848e-01, 2.61675117e+23,
          -7.26171255e-01, -7.32457075e+11, 3.92338008e-01, 0.,
          5.73760986e+00, 3.02231455e+23, 3.94623351e+00 ]
      - [ 0., 0., 0., 0., 0., 0., 0., 0., 0., 0., 0., 0., 0., 0., 0., 0.,
          0., 0., 0., 0., 0., 0., 0., 0., 0., 0., 0., 9.69674528e-01, 0.,
          1.46301770e+00, 0., 1.66568041e+00, 1.08420217e-19,
          1.71005917e+00, -1.08420217e-19, 1.67455614e+00, -2.,
          1.65088749e+00, 3.68934881e+19, 1.64792895e+00, -2.,
          1.70710051e+00, 0., 1.73372781e+00, -2., 1.75221884e+00,
          -3.68934881e+19, 1.77736676e+00, -1.08420217e-19,
          1.78328395e+00, 3.68934881e+19, 1.82914197e+00,
          -3.68934881e+19, 1.87352061e+00, 3.68934881e+19,
          1.73668635e+00, 0., 1.87500000e+00, 2., 1.86020708e+00, 2.,
          1.85281062e+00, -2., 1.83210051e+00, 0., 0., 0., 0., 0., 0.,
          0., 0., 0., 0., 0., 0., 0., 0., 0., 0., 0., 0., 0., 0., 0., 0.,
          0., 0., 0., 0., 0., 0., 0., 0., 0., 0., 0., 0., 0., 0., 0., 0.,
          0., 0., 0., 0., 0., 0., 0., 0., 0., 1.62500000e+00, 0.,
          1.75000000e+00, 0., 1.62500000e+00, 0., 0., 0., 1.62500000e+00,
          0., 1.62500000e+00, 0., 1.87500000e+00, 0., 1.62500000e+00, 0.,
          1.75000000e+00, 0., 0., 0., 0., 0., 0., 0., 0., 0., 0., 0., 0.,
          0., 0., 0., 0., 0., 0., 0., 0., 0., 0., 0., 0., 0., 0., 0., 0.,
          0., 0., 0., 0., 0., 0., 0., 0., 0., 0., 0., 0., 0., 0., 0., 0.,
          0., 0., 0., 0., 0., 0., 0., 0., 0., 0., 0., 0., 0., 0., 0., 0.,
          0., 0., 0., 0., -34031992., 1.68120742e+00, -7.67911533e-26,
          1.42742217e+00, 4.48242005e+35, 1.03194308e+00,
          -3.77072532e-13, 8.25857937e-01, 5.21891219e-15,
          -4.00695056e-01, -6.64407334e+24, -7.12356031e-01,
          1.16542710e+22, -3.77540827e-01, 0., 5.76086426e+00,
          1.03397577e-25, 3.95278001e+00 ]
      - [ 0., 0., 0., 0., 0., 0., 0., 0., 3.68934881e+19, 1.55681813e+00,
          -2., 1.62435055e+00, -2., 1.62597394e+00, 1.08420217e-19,
          1.59058440e+00, -3.68934881e+19, 1.58538949e+00, 2.,
          1.64155841e+00, 1.08420217e-19, 1.63246751e+00, 1.08420217e-19,
          1.71558440e+00, -2., 1.76461029e+00, 0., 1.87500000e+00,
          1.08420217e-19, 1.84512985e+00, 0., 1.82045448e+00, 0.,
          1.72597396e+00, -3.68934881e+19, 1.64415574e+00,
          3.68934881e+19, 1.45779216e+00, 0., 1.39025974e+00, 0.,
          1.36396098e+00, 0., 1.36396098e+00, 2., 1.30162334e+00,
          -1.08420217e-19, 1.37987006e+00, -2., 1.26006484e+00,
          3.68934881e+19, 1.33279216e+00, 0., 1.28084409e+00,
          -1.08420217e-19, 1.31201291e+00, -3.68934881e+19,
          1.16623366e+00, 0., 1.32240260e+00, -3.68934881e+19,
          1.29123366e+00, -2., 1.24935055e+00, 0., 0., 0., 0., 0., 0.,
          0., 0., 0., 0., 0., 0., 0., 0., 0., 0., 0., 0., 0., 0., 0., 0.,
          0., 0., 0., 0., 0., 0., 0., 0., 0., 0., 0., 0., 0., 0., 0., 0.,
          0., 0., 0., 0., 0., 0., 0., 0., 0., 0., 0., 0., 0., 0., 0., 0.,
          0., 0., 0., 0., 0., 0., 0., 0., 0., 0., 0., 0., 0., 0., 0., 0.,
          0., 0., 0., 0., 0., 0., 0., 0., 0., 0., 0., 0., 0., 0., 0., 0.,
          0., 0., 0., 0., 0., 0., 0., 0., 0., 0., 0., 0., 0., 0., 0., 0.,
          0., 0., 0., 0., 0., 0., 0., 0., 0., 0., 0., 0., 0., 0., 0., 0.,
          0., 0., 0., 0., 0., 0., 0., 0., 0., 0., 7.01225293e+03,
          1.53431892e+00, 5.59206332e+26, 4.40873682e-01, 1.64196707e+16,
          3.83226514e-01, -8.89908758e-10, 1.37140676e-01,
          5.24288266e+18, -1.52524393e-02, -4.68127317e-28,
          -2.82090064e-02, 3.36620897e-01, 1.57363191e-02, 0.,
          5.19226074e+00, 9.28455029e+26, 3.64047623e+00 ]
      - [ 0., 0., 0., 0., 0., 0., 0., 0., 0., 0., 0., 0., 0., 0., 0., 0.,
          0., 0., 0., 0., 0., 0., 0., 0., 0., 0., 0., 0., 0., 0.,
          3.68934881e+19, 9.50117350e-01, 0., 0., 3.68934881e+19,
          1.02523470e+00, 3.68934881e+19, 1.02523470e+00, 3.68934881e+19,
          1.02523470e+00, 0., 1.22535205e+00, 0., 0., 0., 1.18779337e+00,
          -3.68934881e+19, 1.25645530e+00, 0., 1.61443663e+00,
          1.08420217e-19, 1.77640843e+00, 0., 1.79636145e+00,
          -3.68934881e+19, 1.66901398e+00, -3.68934881e+19,
          1.76701868e+00, 1.08420217e-19, 1.78227699e+00, 0.,
          1.75293422e+00, 0., 1.87500000e+00, 0., 0., 0., 0., 0., 0., 0.,
          0., 0., 0., 0., 0., 0., 0., 0., 0., 0., 0., 0., 0., 0., 0., 0.,
          0., 0., 0., 0., 0., 0., 0., 0., 0., 0., 0., 0., 0., 0., 0., 0.,
          0., 0., 0., 3.68934881e+19, 1.66666663e+00, 0., 0., 0., 0., 0.,
          1.87500000e+00, 0., 1.87500000e+00, 0., 0., 3.68934881e+19,
          1.66666663e+00, 3.68934881e+19, 1.79166663e+00, 3.68934881e+19,
          1.66666663e+00, 0., 0., 3.68934881e+19, 1.79166663e+00, 0., 0.,
          0., 0., 0., 0., 0., 0., 0., 0., 0., 0., 0., 0., 0., 0., 0., 0.,
          0., 0., 0., 0., 0., 0., 0., 0., 0., 0., 0., 0., 0., 0., 0., 0.,
          0., 0., 0., 0., 0., 0., 0., 0., 0., 0., 0., 0., 0., 0., 0., 0.,
          0., 0., 0., 0., 0., 0., 0., 1.87500000e+00, 0., 0., 0., 0., 0.,
          1.87500000e+00, 2.29951878e-35, 1.68263137e+00,
          -2.06402444e-35, 1.42889035e+00, 4.09659212e+27,
          1.04648340e+00, -2.80813496e+04, 8.32508862e-01,
          -3.04609848e-32, -4.10537153e-01, 7.44663000e-01,
          -7.22267568e-01, 4.98563932e-05, 3.77112180e-01, 0.,
          5.76379395e+00, -20971520., 3.94934750e+00 ]
      - [ 2., 1.46576762e+00, -2., 1.65248954e+00, -3.68934881e+19,
          1.65975094e+00, 0., 1.63381743e+00, -2., 1.60321569e+00, 0.,
          1.63381743e+00, 2., 1.84906638e+00, 0., 1.87500000e+00, 2.,
          1.76556015e+00, -3.68934881e+19, 1.71887958e+00,
          -1.08420217e-19, 1.63692939e+00, -1.08420217e-19,
          1.39522815e+00, 2., 1.36566389e+00, 1.08420217e-19,
          1.21576762e+00, 2., 1.29097509e+00, 2., 1.29097509e+00,
          1.08420217e-19, 1.19917011e+00, 1.08420217e-19, 1.19917011e+00,
          1.08420217e-19, 1.24896264e+00, 2., 1.10736513e+00,
          1.08420217e-19, 1.14937758e+00, 1.08420217e-19, 1.13278008e+00,
          0., 8.78890038e-01, 1.08420217e-19, 1.21576762e+00, 2.,
          1.07417011e+00, 1.08420217e-19, 1.21576762e+00, 2.,
          1.00778008e+00, 0., 9.41390038e-01, 0., 9.74585056e-01, 2.,
          1.00778008e+00, 0., 0., 0., 8.78890038e-01, 0., 0., 0., 0., 0.,
          0., 0., 0., 0., 0., 0., 0., 0., 0., 0., 0., 0., 0., 0., 0., 0.,
          0., 0., 0., 0., 0., 0., 0., 0., 0., 0., 0., 0., 0., 0., 0., 0.,
          0., 0., 0., 0., 0., 0., 0., 0., 0., 0., 0., 0., 0., 0., 0., 0.,
          0., 0., 0., 0., 0., 0., 0., 0., 0., 0., 0., 0., 0., 0., 0., 0.,
          0., 0., 0., 0., 0., 0., 0., 0., 0., 0., 0., 0., 0., 0., 0., 0.,
          0., 0., 0., 0., 0., 0., 0., 0., 0., 0., 0., 0., 0., 0., 0., 0.,
          0., 0., 0., 0., 0., 0., 0., 0., 0., 0., 0., 0., 0., 0., 0., 0.,
          0., 0., 0., 0., 0., 0., 0., 0., 0., 0., 0., 7.00674310e+33,
          1.53436005e+00, -2.71474770e+10, 5.15307069e-01,
          -1.16760872e-01, 3.65507364e-01, 6.65851380e-14,
          1.45382777e-01, -8.36531433e-14, 1.74471065e-02,
          1.58261676e-30, 7.74868131e-02, -6.01860886e+01,
          1.30553506e-02, 0., 5.21203613e+00, -1.08086391e+17,
          3.64533019e+00 ]
      - [ 0., 0., 0., 0., 0., 0., 0., 0., -3.68934881e+19,
          1.43617010e+00, 0., 1.56382978e+00, 0., 1.56382978e+00, -2.,
          1.57978714e+00, 3.68934881e+19, 1.57180846e+00, -2.,
          1.53723395e+00, 1.08420217e-19, 1.56648934e+00, 0.,
          1.62632978e+00, 1.08420217e-19, 1.71143615e+00,
          -3.68934881e+19, 1.87499988e+00, -2., 1.82978714e+00, 2.,
          1.85039890e+00, 0., 1.78191483e+00, 2., 1.76662230e+00, 2.,
          1.54787230e+00, 1.08420217e-19, 1.42021275e+00,
          -1.08420217e-19, 1.30585098e+00, 1.08420217e-19,
          1.39893615e+00, -3.68934881e+19, 1.39361691e+00,
          1.08420217e-19, 1.23404253e+00, -1.08420217e-19,
          1.34840417e+00, -1.08420217e-19, 1.32712758e+00,
          1.08420217e-19, 1.27393615e+00, -1.08420217e-19,
          1.30585098e+00, 1.08420217e-19, 1.27393615e+00,
          -1.08420217e-19, 1.30585098e+00, -1.08420217e-19,
          1.26329780e+00, 1.08420217e-19, 1.33776593e+00, 0., 0., 0., 0.,
          0., 0., 0., 0., 0., 0., 0., 0., 0., 0., 0., 0., 0., 0., 0., 0.,
          0., 0., 0., 0., 0., 0., 0., 0., 0., 0., 0., 0., 0., 0., 0., 0.,
          0., 0., 0., 0., 0., 0., 0., 0., 0., 0., 0., 0., 0., 0., 0., 0.,
          0., 0., 0., 0., 0., 0., 0., 0., 0., 0., 0., 0., 0., 0., 0., 0.,
          0., 0., 0., 0., 0., 0., 0., 0., 0., 0., 0., 0., 0., 0., 0., 0.,
          0., 0., 0., 0., 0., 0., 0., 0., 0., 0., 0., 0., 0., 0., 0., 0.,
          0., 0., 0., 0., 0., 0., 0., 0., 0., 0., 0., 0., 0., 0., 0., 0.,
          0., 0., 0., 0., 0., 0., 0., 0., 0., 0., 0., 0.,
          -2.98000784e+38, 1.53426111e+00, 5.82792888e-15,
          4.13527668e-01, 4.05919027e-36, 3.59934866e-01, 7.88304230e+09,
          1.16961643e-01, -2.51862436e+25, 1.00964243e-02,
          1.50309620e-23, 5.22585995e-02, 324645440., -1.28845200e-02,
          0., 5.16760254e+00, 2.19902326e+12, 3.63132334e+00 ]
      - [ 0., 0., 0., 0., 0., 0., 0., 0., 0., 0., 0., 0., 0., 0., 0., 0.,
          0., 0., 0., 0., 0., 0., 0., 0., 0., 0., 0., 1.15094340e+00, 0.,
          0., 3.68934881e+19, 1.75707543e+00, 0., 1.72641504e+00,
          -3.68934881e+19, 1.65566027e+00, 3.68934881e+19,
          1.63207543e+00, -2., 1.66037726e+00, -2., 1.71698105e+00, 2.,
          1.73584902e+00, -2., 1.78537726e+00, -2., 1.71226406e+00,
          -3.68934881e+19, 1.80660367e+00, 0., 1.80188680e+00, 2.,
          1.86556602e+00, -2., 1.71698105e+00, -1.08420217e-19,
          1.87264144e+00, -1.08420217e-19, 1.84669805e+00,
          -1.08420217e-19, 1.76886785e+00, 0., 1.87500000e+00, 0., 0.,
          0., 0., 0., 0., 0., 0., 0., 0., 0., 0., 0., 0., 0., 0., 0., 0.,
          0., 0., 0., 0., 0., 0., 0., 0., 0., 0., 0., 0., 0., 0., 0., 0.,
          0., 0., 0., 0., 0., 0., 0., 0., 0., 1.75000000e+00, 0.,
          1.87500000e+00, 0., 1.75000000e+00, 0., 1.62500000e+00, 0., 0.,
          0., 1.87500000e+00, 0., 1.62500000e+00, 0., 1.62500000e+00, 0.,
          1.62500000e+00, 0., 1.75000000e+00, 0., 0., 0., 0., 0., 0., 0.,
          0., 0., 0., 0., 0., 0., 0., 0., 0., 0., 0., 0., 0., 0., 0., 0.,
          0., 0., 0., 0., 0., 0., 0., 0., 0., 0., 0., 0., 0., 0., 0., 0.,
          0., 0., 0., 0., 0., 0., 0., 0., 0., 0., 0., 0., 0., 0., 0., 0.,
          0., 0., 0., 0., 0., 0., 0., 0., 1.75000000e+00, 0.,
          1.87500000e+00, -2.09315455e-39, 1.68591809e+00,
          8.70547072e+18, 1.43738925e+00, 1.12811499e+03, 1.05195725e+00,
          1.97111448e+34, 8.37579370e-01, -6.85048296e-38,
          -4.11045939e-01, -1.50651276e+18, -7.27821946e-01,
          3.67595550e+06, 3.92846555e-01, 0., 5.75305176e+00,
          -1.13336796e+23, 3.94873476e+00 ]
      - [ 0., 0., 0., 0., 0., 0., 0., 0., 0., 0., 0., 0., 0., 0., 0., 0.,
          0., 0., 0., 0., 0., 0., 1.08420217e-19, 8.94551277e-01,
          1.08420217e-19, 8.94551277e-01, 1.08420217e-19, 8.94551277e-01,
          0., 0., 0., 0., 1.08420217e-19, 8.94551277e-01, 0., 0., 0., 0.,
          2., 9.98076916e-01, 1.08420217e-19, 1.03910255e+00,
          1.08420217e-19, 8.94551277e-01, 1.08420217e-19, 8.94551277e-01,
          1.08420217e-19, 1.29935896e+00, -2., 1.65512812e+00,
          -1.08420217e-19, 1.72051275e+00, 3.68934881e+19,
          1.71794868e+00, -1.08420217e-19, 1.62820506e+00, 0.,
          1.87500000e+00, 1.08420217e-19, 1.79102564e+00, 2.,
          1.79551280e+00, 2., 1.82820511e+00, 0., 0., 0., 0., 0., 0., 0.,
          0., 0., 0., 0., 0., 0., 0., 0., 0., 0., 0., 0., 0., 0., 0., 0.,
          0., 0., 0., 0., 0., 0., 0., 0., 0., 0., 0., 0., 0., 0., 0., 0.,
          0., 3.68934881e+19, 1.79166663e+00, 0., 0., 3.68934881e+19,
          1.79166663e+00, 0., 0., 3.68934881e+19, 1.66666663e+00,
          3.68934881e+19, 1.79166663e+00, 3.68934881e+19, 1.66666663e+00,
          3.68934881e+19, 1.79166663e+00, 0., 1.87500000e+00,
          3.68934881e+19, 1.79166663e+00, 3.68934881e+19, 1.66666663e+00,
          0., 1.87500000e+00, 0., 0., 0., 0., 0., 0., 0., 0., 0., 0., 0.,
          0., 0., 0., 0., 0., 0., 0., 0., 0., 0., 0., 0., 0., 0., 0., 0.,
          0., 0., 0., 0., 0., 0., 0., 0., 0., 0., 0., 0., 0., 0., 0., 0.,
          0., 0., 0., 0., 0., 0., 0., 0., 0., 0., 0., 0., 0., 0., 0., 0.,
          1.87500000e+00, 0., 0., 0., 0., 3.39308492e-09, 1.68155789e+00,
          4.94829315e-08, 1.42524517e+00, -1.39049139e+32,
          1.04916763e+00, 8.01500691e-16, 8.36579382e-01,
          -3.84892237e+25, -4.08137172e-01, -4.11902046e+00,
          -7.20611751e-01, 1.13521639e+34, -3.97059619e-01, 0.,
          5.76904297e+00, -2.84217094e-14, 3.94987893e+00 ]
      - [ 0., 0., 0., 0., 0., 0., 0., 0., 0., 0., 0., 0., 2.,
          1.35923421e+00, 0., 1.63288283e+00, 3.68934881e+19,
          1.58445942e+00, -2., 1.61373866e+00, 2., 1.56644142e+00,
          1.08420217e-19, 1.58220720e+00, 0., 1.51689184e+00, 2.,
          1.57545042e+00, 0., 1.56869364e+00, 0., 1.64639640e+00,
          3.68934881e+19, 1.82376122e+00, 0., 1.87500000e+00,
          1.08420217e-19, 1.68581080e+00, 0., 1.61599100e+00, 2.,
          1.56644142e+00, -1.08420217e-19, 1.47072065e+00, 2.,
          1.52364862e+00, -2., 1.48873866e+00, -3.68934881e+19,
          1.42117107e+00, -3.68934881e+19, 1.41216207e+00,
          -1.08420217e-19, 1.47072065e+00, -2., 1.26013505e+00, 0.,
          1.51238739e+00, 0., 1.32319820e+00, -2., 1.26914406e+00, 0.,
          1.32319820e+00, 0., 0., 0., 0., 0., 0., 0., 0., 0., 0., 0., 0.,
          0., 0., 0., 0., 0., 0., 0., 0., 0., 0., 0., 0., 0., 0., 0., 0.,
          0., 0., 0., 0., 0., 0., 0., 0., 0., 0., 0., 0., 0., 0., 0., 0.,
          0., 0., 0., 0., 0., 0., 0., 0., 0., 0., 0., 0., 0., 0., 0., 0.,
          0., 0., 0., 0., 0., 0., 0., 0., 0., 0., 0., 0., 0., 0., 0., 0.,
          0., 0., 0., 0., 0., 0., 0., 0., 0., 0., 0., 0., 0., 0., 0., 0.,
          0., 0., 0., 0., 0., 0., 0., 0., 0., 0., 0., 0., 0., 0., 0., 0.,
          0., 0., 0., 0., 0., 0., 0., 0., 0., 0., 0., 0., 0., 0., 0., 0.,
          0., 0., 0., 0., -3.94663090e+22, 1.53472722e+00,
          -1.77730267e+20, 6.33472621e-01, 3.54232368e-19,
          4.22275782e-01, 7.37104337e-37, 1.73821554e-01,
          -5.54363375e+05, 2.03777831e-02, 3113224., 9.00719762e-02,
          4.44862040e-38, 2.42624637e-02, 0., 5.15856934e+00,
          -1.81338873e+24, 3.63037539e+00 ]
   decision_functions:
      -
         sv_count: 12
         rho: 0.
         alpha: [ 1., 1., 1., 1., 1., 1., -1., -1., -1., -1., -1., -1. ]
         index: [ 1, 2, 5, 7, 8, 11, 0, 3, 4, 6, 9, 10 ]
