%YAML 1.0
---
opencv_ml_svm:
   format: 3
   svmType: C_SVC
   kernel:
      type: RBF
      gamma: 5.0000000000000000e-01
   C: 1.
   term_criteria: { epsilon:1.1920928955078125e-07, iterations:1000 }
   var_count: 4
   class_count: 5
   class_labels: !!opencv-matrix
      rows: 5
      cols: 1
      dt: i
      data: [ 1, 2, 3, 4, 5 ]
   sv_total: 21
   support_vectors:
      - [ 6.54299974e-01, 6.78900003e-01, 9.86699998e-01, 6.21500015e-01 ]
      - [ 9.87600029e-01, 5.37400007e-01, 1.24300003e-01, 7.88999975e-01 ]
      - [ 2.46700004e-01, 1.09800003e-01, 8.90900016e-01, 4.65299994e-01 ]
      - [ 2.46700004e-01, 1.09800003e-01, 8.90900016e-01, 4.65299994e-01 ]
      - [ 2.08000004e-01, 3.67700011e-01, 1.24300003e-01, 1.08199999e-01 ]
      - [ 2.46700004e-01, 1.09800003e-01, 8.90900016e-01, 4.65299994e-01 ]
      - [ 6.54299974e-01, 6.78900003e-01, 9.86699998e-01, 6.21500015e-01 ]
      - [ 2.08000004e-01, 3.67700011e-01, 1.24300003e-01, 1.08199999e-01 ]
      - [ 9.87600029e-01, 5.37400007e-01, 1.24300003e-01, 7.88999975e-01 ]
      - [ 2.46700004e-01, 1.09800003e-01, 8.90900016e-01, 4.65299994e-01 ]
      - [ 6.54299974e-01, 6.78900003e-01, 9.86699998e-01, 6.21500015e-01 ]
      - [ 1.78900003e-01, 8.09800029e-01, 4.98699993e-01, 9.65699971e-01 ]
      - [ 2.08000004e-01, 3.67700011e-01, 1.24300003e-01, 1.08199999e-01 ]
      - [ 9.87600029e-01, 5.37400007e-01, 1.24300003e-01, 7.88999975e-01 ]
      - [ 6.54299974e-01, 6.78900003e-01, 9.86699998e-01, 6.21500015e-01 ]
      - [ 1.78900003e-01, 8.09800029e-01, 4.98699993e-01, 9.65699971e-01 ]
      - [ 2.08000004e-01, 3.67700011e-01, 1.24300003e-01, 1.08199999e-01 ]
      - [ 2.46700004e-01, 1.09800003e-01, 8.90900016e-01, 4.65299994e-01 ]
      - [ 6.54299974e-01, 6.78900003e-01, 9.86699998e-01, 6.21500015e-01 ]
      - [ 1.78900003e-01, 8.09800029e-01, 4.98699993e-01, 9.65699971e-01 ]
      - [ 1.78900003e-01, 8.09800029e-01, 4.98699993e-01, 9.65699971e-01 ]
   decision_functions:
      -
         sv_count: 6
         rho: 0.
         alpha: [ 1., 1., 7.5257526622213455e-01, -1., -1.,
             -7.5257526622213455e-01 ]
         index: [ 13, 1, 8, 0, 14, 10 ]
      -
         sv_count: 4
         rho: 0.
         alpha: [ 1., 9.6311309197154771e-01, -1.,
             -9.6311309197154771e-01 ]
         index: [ 13, 1, 17, 5 ]
      -
         sv_count: 6
         rho: 0.
         alpha: [ 1., 1., 7.6057832359346755e-01, -1., -1.,
             -7.6057832359346755e-01 ]
         index: [ 13, 1, 8, 19, 15, 20 ]
      -
         sv_count: 6
         rho: 0.
         alpha: [ 1., 1., 3.6368429068335478e-01, -1., -1.,
             -3.6368429068335478e-01 ]
         index: [ 13, 1, 8, 12, 7, 16 ]
      -
         sv_count: 10
         rho: 0.
         alpha: [ 1., 1., 1., 1., 3.4158353837220012e-01, -1., -1., -1.,
             -1., -3.4158353837220012e-01 ]
         index: [ 0, 14, 10, 6, 18, 17, 5, 3, 9, 2 ]
      -
         sv_count: 8
         rho: 0.
         alpha: [ 1., 1., 1., 8.5963326939419471e-01, -1., -1., -1.,
             -8.5963326939419471e-01 ]
         index: [ 0, 14, 10, 6, 19, 15, 20, 11 ]
      -
         sv_count: 6
         rho: 0.
         alpha: [ 1., 1., 8.8558365535209682e-02, -1., -1.,
             -8.8558365535209682e-02 ]
         index: [ 0, 14, 10, 12, 7, 16 ]
      -
         sv_count: 6
         rho: 0.
         alpha: [ 1., 1., 7.6247014374143995e-01, -1., -1.,
             -7.6247014374143995e-01 ]
         index: [ 17, 5, 3, 19, 15, 20 ]
      -
         sv_count: 8
         rho: 0.
         alpha: [ 1., 1., 1., 8.6156878204051629e-02, -1., -1., -1.,
             -8.6156878204051629e-02 ]
         index: [ 17, 5, 3, 9, 12, 7, 16, 4 ]
      -
         sv_count: 6
         rho: 0.
         alpha: [ 1., 1., 4.1049841373516699e-01, -1., -1.,
             -4.1049841373516699e-01 ]
         index: [ 19, 15, 20, 12, 7, 16 ]
